{"gradients/graph_8features.6.bias":{"bins":[-0.005283077713102102,-0.0051070209592580795,-0.0049309637397527695,-0.004754906985908747,-0.004578849766403437,-0.004402793012559414,-0.004226736258715391,-0.004050679039210081,-0.0038746222853660583,-0.003698565298691392,-0.0035225083120167255,-0.003346451325342059,-0.0031703943386673927,-0.0029943373519927263,-0.0028182805981487036,-0.002642223611474037,-0.0024661666247993708,-0.0022901096381247044,-0.002114052651450038,-0.0019379957811906934,-0.0017619389109313488,-0.0015858819242566824,-0.001409824937582016,-0.0012337680673226714,-0.001057711080648005,-0.0008816541521809995,-0.000705597223713994,-0.0005295402370393276,-0.00035348330857232213,-0.0001774263655534014,-1.369422534480691e-06,0.00017468752048444003,0.00035074446350336075,0.0005268013919703662,0.0007028583204373717,0.0008789153071120381,0.0010549721773713827,0.0012310291640460491,0.0014070861507207155,0.00158314302098006,0.0017592000076547265,0.001935256994329393,0.0021113138645887375,0.002287370851263404,0.0024634278379380703,0.0026394848246127367,0.0028155415784567595,0.002991598565131426,0.0031676555518060923,0.0033437125384807587,0.003519769525155425,0.003695826278999448,0.0038718832656741142,0.004047940485179424,0.004223997239023447,0.00440005399286747,0.00457611121237278,0.004752167966216803,0.004928225185722113,0.005104281939566135,0.005280338693410158,0.005456395912915468,0.005632452666759491,0.005808509886264801,0.005984566640108824],"_type":"histogram","values":[4,1,2,0,0,1,4,3,1,4,0,2,2,6,2,5,5,7,2,1,0,4,10,6,5,8,6,8,6,24,25,8,10,9,6,7,9,3,3,3,7,3,4,2,4,3,4,0,1,3,2,4,2,0,1,0,1,1,0,0,0,1,0,1]},"gradients/graph_8classifier.3.weight":{"_type":"histogram","values":[2,2,0,4,5,4,11,24,19,27,56,102,142,190,286,501,724,1194,1880,3172,5254,8895,14748,24975,42106,73294,131298,249673,526585,1.36408e+06,1.0501001e+07,2.31662e+06,764390,339296,173145,94902,54617,32129,19381,11915,7478,4579,2881,1953,1232,820,523,338,228,161,103,98,44,43,23,18,12,9,8,5,8,0,2,1],"bins":[-0.0071079060435295105,-0.006876429542899132,-0.00664495350793004,-0.006413477007299662,-0.006182000506669283,-0.0059505244717001915,-0.005719047971069813,-0.005487571470439434,-0.005256094969809055,-0.005024618934839964,-0.004793142434209585,-0.0045616659335792065,-0.004330189898610115,-0.004098713397979736,-0.0038672371301800013,-0.0036357606295496225,-0.0034042843617498875,-0.0031728080939501524,-0.0029413315933197737,-0.0027098553255200386,-0.00247837882488966,-0.002246902557089925,-0.0020154262892901897,-0.0017839499050751328,-0.001552473520860076,-0.001320997136645019,-0.0010895207524299622,-0.0008580444846302271,-0.0006265681004151702,-0.00039509174530394375,-0.00016361539019271731,6.786096491850913e-05,0.00029933732002973557,0.0005308137042447925,0.0007622900302521884,0.0009937663562595844,0.0012252427404746413,0.0014567191246896982,0.0016881953924894333,0.0019196717767044902,0.002151148160919547,0.002382624428719282,0.002614100929349661,0.002845577197149396,0.003077053464949131,0.0033085299655795097,0.003540006233379245,0.0037714827340096235,0.004002959001809359,0.004234435502439737,0.004465911537408829,0.0046973880380392075,0.004928864538669586,0.005160340573638678,0.005391817074269056,0.005623293574899435,0.0058547696098685265,0.006086246110498905,0.006317722611129284,0.006549199111759663,0.006780675146728754,0.007012151647359133,0.0072436281479895115,0.007475104182958603,0.007706580683588982]},"gradients/graph_8classifier.0.weight":{"bins":[-0.014406265690922737,-0.013925297185778618,-0.013444328680634499,-0.012963361106812954,-0.012482392601668835,-0.012001424096524715,-0.01152045652270317,-0.011039488017559052,-0.010558519512414932,-0.010077551007270813,-0.009596582502126694,-0.009115614928305149,-0.00863464642316103,-0.00815367791801691,-0.007672709878534079,-0.007191741839051247,-0.006710773333907127,-0.006229804828763008,-0.005748836789280176,-0.005267868749797344,-0.004786900244653225,-0.004305931739509106,-0.0038249637000262737,-0.003343995427712798,-0.0028630271553993225,-0.002382058883085847,-0.0019010906107723713,-0.0014201223384588957,-0.0009391540661454201,-0.00045818579383194447,2.2782478481531143e-05,0.0005037507507950068,0.0009847190231084824,0.001465687295421958,0.0019466555677354336,0.002427623840048909,0.002908592112362385,0.0033895603846758604,0.003870528656989336,0.004351496696472168,0.004832465201616287,0.0053134337067604065,0.0057944017462432384,0.00627536978572607,0.00675633829087019,0.007237306796014309,0.007718274835497141,0.008199242874979973,0.008680211380124092,0.009161179885268211,0.00964214839041233,0.010123115964233875,0.010604084469377995,0.011085052974522114,0.011566020548343658,0.012046989053487778,0.012527957558631897,0.013008926063776016,0.013489894568920135,0.01397086214274168,0.0144518306478858,0.014932799153029919,0.015413766726851463,0.015894735231995583,0.016375703737139702],"_type":"histogram","values":[1,0,0,1,3,6,7,11,13,22,50,62,101,171,268,419,678,1032,1597,2618,4297,6834,11473,19426,33315,59703,110743,227496,551192,5.711879e+06,1.866852e+06,442007,184772,90114,47253,26112,14902,8527,5197,3146,1877,1125,713,399,277,178,118,70,41,28,21,15,8,4,3,2,1,2,0,1,0,0,0,1]},"gradients/graph_8classifier.3.bias":{"bins":[-0.002418769057840109,-0.0023388236295431852,-0.002258877968415618,-0.0021789325401186943,-0.002098986878991127,-0.0020190414506942034,-0.0019390960223972797,-0.0018591504776850343,-0.0017792049329727888,-0.0016992593882605433,-0.0016193138435482979,-0.0015393684152513742,-0.0014594228705391288,-0.0013794773258268833,-0.0012995318975299597,-0.0012195863528177142,-0.0011396408081054688,-0.0010596952633932233,-0.0009797497186809778,-0.0008998042903840542,-0.0008198587456718087,-0.0007399132009595633,-0.0006599677144549787,-0.0005800222279503942,-0.0005000766832381487,-0.0004201311676297337,-0.0003401856520213187,-0.00026024013641290367,-0.00018029462080448866,-0.00010034910519607365,-2.0403589587658644e-05,5.9541926020756364e-05,0.00013948767445981503,0.00021943319006823003,0.00029937870567664504,0.00037932422128506005,0.00045926973689347506,0.0005392152816057205,0.0006191607681103051,0.0006991062546148896,0.0007790517993271351,0.0008589973440393806,0.0009389428305439651,0.0010188883170485497,0.0010988338617607951,0.0011787794064730406,0.0012587248347699642,0.0013386703794822097,0.0014186159241944551,0.0014985614689067006,0.001578507013618946,0.0016584524419158697,0.0017383979866281152,0.0018183435313403606,0.0018982889596372843,0.0019782346207648516,0.002058180049061775,0.002138125477358699,0.002218071138486266,0.0022980165667831898,0.002377962227910757,0.0024579076562076807,0.0025378530845046043,0.0026177987456321716,0.0026977441739290953],"_type":"histogram","values":[1,2,1,1,1,1,1,4,7,3,7,8,10,10,22,37,28,40,38,79,72,83,108,144,134,181,215,214,251,271,268,280,212,220,183,169,127,115,104,79,60,64,57,43,26,28,17,15,11,10,8,5,8,1,2,4,0,3,0,0,1,0,0,2]},"gradients/graph_8features.0.weight":{"_type":"histogram","values":[1,0,0,0,2,1,0,0,2,1,1,0,5,5,6,16,16,16,22,37,38,46,36,37,33,28,18,18,17,15,16,21,16,16,12,9,4,12,7,9,5,5,5,5,2,1,1,1,3,1,0,2,0,0,1,0,1,1,2,0,0,0,0,1],"bins":[-0.011239759624004364,-0.010720629245042801,-0.010201498866081238,-0.009682368487119675,-0.009163238108158112,-0.008644107729196548,-0.008124977350234985,-0.007605846971273422,-0.007086716592311859,-0.006567586213350296,-0.006048455834388733,-0.00552932545542717,-0.005010195076465607,-0.004491064697504044,-0.0039719343185424805,-0.0034528039395809174,-0.0029336735606193542,-0.002414543181657791,-0.001895412802696228,-0.001376282423734665,-0.0008571520447731018,-0.0003380216658115387,0.00018110871315002441,0.0007002390921115875,0.0012193694710731506,0.0017384998500347137,0.002257630228996277,0.00277676060795784,0.003295890986919403,0.003815021365880966,0.004334151744842529,0.004853282123804092,0.005372414365410805,0.005891544744372368,0.006410675123333931,0.006929805502295494,0.007448935881257057,0.00796806626021862,0.008487196639180183,0.009006327018141747,0.00952545739710331,0.010044587776064873,0.010563718155026436,0.011082848533987999,0.011601978912949562,0.012121109291911125,0.012640239670872688,0.013159370049834251,0.013678500428795815,0.014197630807757378,0.01471676118671894,0.015235891565680504,0.015755021944642067,0.01627415232360363,0.016793282702565193,0.017312413081526756,0.01783154346048832,0.018350673839449883,0.018869804218411446,0.01938893459737301,0.019908064976334572,0.020427195355296135,0.020946325734257698,0.02146545611321926,0.021984586492180824]},"epoch":2,"_runtime":36.906140463,"val_loss":0.11192937907139966,"gradients/graph_8classifier.0.bias":{"bins":[-0.0032787658274173737,-0.0031665763817727566,-0.003054386703297496,-0.002942197024822235,-0.002830007579177618,-0.002717818133533001,-0.00260562845505774,-0.0024934387765824795,-0.0023812493309378624,-0.0022690598852932453,-0.0021568702068179846,-0.002044680528342724,-0.0019324910826981068,-0.0018203015206381679,-0.001708111958578229,-0.00159592239651829,-0.0014837328344583511,-0.0013715432723984122,-0.0012593537103384733,-0.0011471641482785344,-0.0010349745862185955,-0.0009227850241586566,-0.0008105954620987177,-0.0006984059000387788,-0.0005862163379788399,-0.00047402677591890097,-0.00036183721385896206,-0.00024964765179902315,-0.00013745808973908424,-2.5268527679145336e-05,8.692103438079357e-05,0.00019911059644073248,0.0003113001585006714,0.0004234897205606103,0.0005356792826205492,0.0006478688446804881,0.000760058406740427,0.0008722479688003659,0.0009844375308603048,0.0010966270929202437,0.0012088166549801826,0.0013210062170401216,0.0014331957791000605,0.0015453853411599994,0.0016575749032199383,0.0017697644652798772,0.001881954027339816,0.001994143705815077,0.002106333151459694,0.002218522597104311,0.0023307122755795717,0.0024429019540548325,0.0025550913996994495,0.0026672808453440666,0.0027794705238193274,0.002891660202294588,0.003003849647939205,0.0031160390935838223,0.003228228772059083,0.0033404184505343437,0.003452607896178961,0.003564797341823578,0.0036769870202988386,0.0037891766987740993,0.0039013661444187164],"_type":"histogram","values":[1,0,1,1,0,1,1,4,5,1,7,3,4,14,12,18,22,30,33,41,45,54,74,104,109,137,189,263,350,1433,260,193,138,109,89,73,55,57,35,30,27,18,12,7,10,10,4,3,1,2,1,2,1,1,0,0,0,0,0,0,0,0,0,1]},"_wandb":{"runtime":36},"gradients/graph_8features.3.weight":{"values":[1,0,0,0,2,0,2,0,0,0,1,3,2,2,4,4,4,10,14,21,15,18,16,29,39,45,58,68,100,115,135,149,234,300,454,527,798,1052,1377,1857,2645,3777,5771,9728,20332,9925,5214,3034,2026,1296,866,565,386,266,179,100,62,36,28,16,5,9,1,5],"bins":[-0.022400038316845894,-0.021895691752433777,-0.02139134332537651,-0.020886994898319244,-0.020382648333907127,-0.01987830176949501,-0.019373953342437744,-0.018869604915380478,-0.01836525835096836,-0.017860911786556244,-0.017356563359498978,-0.01685221493244171,-0.016347868368029594,-0.015843521803617477,-0.015339173376560211,-0.01483482588082552,-0.014330478385090828,-0.013826130889356136,-0.013321783393621445,-0.012817435897886753,-0.012313088402152061,-0.01180874090641737,-0.011304393410682678,-0.010800045914947987,-0.010295698419213295,-0.009791350923478603,-0.009287003427743912,-0.00878265593200922,-0.008278308436274529,-0.007773960940539837,-0.007269613444805145,-0.006765265949070454,-0.006260918453335762,-0.00575657095760107,-0.005252223461866379,-0.004747875966131687,-0.0042435284703969955,-0.003739180974662304,-0.0032348334789276123,-0.0027304859831929207,-0.002226138487458229,-0.0017217909917235374,-0.0012174434959888458,-0.0007130960002541542,-0.00020874850451946259,0.00029559899121522903,0.0007999464869499207,0.0013042939826846123,0.001808641478419304,0.0023129889741539955,0.002817336469888687,0.0033216839656233788,0.0038260314613580704,0.004330378957092762,0.004834726452827454,0.005339073948562145,0.005843421444296837,0.0063477689400315285,0.00685211643576622,0.007356463931500912,0.007860811427235603,0.008365158922970295,0.008869506418704987,0.009373853914439678,0.00987820141017437],"_type":"histogram"},"_timestamp":1.7387228671099792e+09,"val_accuracy":0.9638734076433121,"_step":5,"gradients/graph_8features.8.weight":{"_type":"histogram","values":[1,3,0,2,2,1,4,8,9,10,18,23,28,45,54,74,141,191,231,308,467,716,949,1309,1919,2746,3686,5281,7964,12121,18537,28172,42304,61873,219817,66413,39933,26139,16622,10528,6935,4402,3055,2106,1417,969,663,512,355,227,180,106,80,47,33,30,22,9,11,3,7,3,2,1],"bins":[-0.020074134692549706,-0.019496247172355652,-0.018918359652161598,-0.018340470269322395,-0.01776258274912834,-0.017184695228934288,-0.016606807708740234,-0.01602892018854618,-0.015451031737029552,-0.014873144216835499,-0.01429525576531887,-0.013717368245124817,-0.013139480724930763,-0.012561592273414135,-0.011983704753220081,-0.011405816301703453,-0.0108279287815094,-0.010250041261315346,-0.009672152809798717,-0.009094265289604664,-0.008516376838088036,-0.007938489317893982,-0.007360601797699928,-0.006782713811844587,-0.006204825825989246,-0.005626937840133905,-0.0050490498542785645,-0.004471162334084511,-0.00389327434822917,-0.003315386362373829,-0.0027374986093491316,-0.0021596108563244343,-0.0015817247331142426,-0.0010038368636742234,-0.0004259489942342043,0.00015193887520581484,0.000729826744645834,0.001307714614085853,0.0018856024835258722,0.0024634902365505695,0.0030413782224059105,0.0036192662082612514,0.004197154194116592,0.004775041714310646,0.005352929700165987,0.005930817686021328,0.006508705206215382,0.007086593192070723,0.0076644811779260635,0.008242368698120117,0.008820257149636745,0.009398144669830799,0.009976033121347427,0.010553920641541481,0.011131808161735535,0.011709696613252163,0.012287584133446217,0.01286547165364027,0.013443360105156898,0.014021247625350952,0.014599135145545006,0.015177023597061634,0.015754912048578262,0.016332799568772316,0.01691068708896637]},"val_f1_score":0.960185896731764,"gradients/graph_8classifier.5.weight":{"values":[3,0,1,0,2,7,2,6,10,17,15,25,23,26,43,78,82,113,139,175,202,259,330,459,665,937,1600,2742,5199,11586,6889,3339,1902,1161,740,480,396,304,202,182,121,109,85,72,58,38,32,29,14,18,10,6,8,8,3,0,3,4,0,0,0,0,0,1],"bins":[-0.04178972914814949,-0.04038108512759209,-0.03897244110703468,-0.03756379708647728,-0.036155153065919876,-0.03474650904536247,-0.03333786502480507,-0.031929221004247665,-0.030520575121045113,-0.02911193110048771,-0.027703287079930305,-0.026294643059372902,-0.02488599717617035,-0.023477353155612946,-0.022068709135055542,-0.02066006511449814,-0.019251421093940735,-0.01784277707338333,-0.016434133052825928,-0.01502548810094595,-0.013616844080388546,-0.012208200059831142,-0.010799555107951164,-0.00939091108739376,-0.007982267066836357,-0.0065736230462789536,-0.005164978560060263,-0.0037563343066722155,-0.0023476900532841682,-0.000939045799896121,0.0004695984534919262,0.0018782427068799734,0.003286890685558319,0.004695534706115723,0.0061041791923344135,0.007512823678553104,0.008921467699110508,0.010330111719667912,0.01173875667154789,0.013147400692105293,0.014556044712662697,0.0159646887332201,0.017373332753777504,0.018781976774334908,0.02019062265753746,0.021599266678094864,0.023007910698652267,0.02441655471920967,0.025825198739767075,0.027233842760324478,0.02864248678088188,0.030051130801439285,0.03145977482199669,0.03286841884255409,0.034277062863111496,0.0356857068836689,0.0370943546295166,0.038502998650074005,0.03991164267063141,0.04132028669118881,0.042728930711746216,0.04413757473230362,0.04554621875286102,0.046954862773418427,0.04836350679397583],"_type":"histogram"},"gradients/graph_8features.3.bias":{"bins":[-0.01357998140156269,-0.013261032290756702,-0.01294208224862814,-0.012623133137822151,-0.012304183095693588,-0.0119852339848876,-0.011666283942759037,-0.011347334831953049,-0.011028384789824486,-0.010709435679018497,-0.01039048656821251,-0.010071536526083946,-0.009752587415277958,-0.009433637373149395,-0.009114688262343407,-0.008795738220214844,-0.008476789109408855,-0.008157839998602867,-0.007838889956474304,-0.007519940380007029,-0.007200990803539753,-0.006882041692733765,-0.006563092116266489,-0.006244142539799213,-0.005925192963331938,-0.005606243386864662,-0.0052872938103973866,-0.004968344233930111,-0.004649395123124123,-0.004330445546656847,-0.004011495970189571,-0.0036925463937222958,-0.0033735977485775948,-0.003054648172110319,-0.0027356985956430435,-0.0024167492520064116,-0.002097799675539136,-0.0017788500990718603,-0.0014599006390199065,-0.0011409511789679527,-0.0008220016025006771,-0.0005030520842410624,-0.0001841025659814477,0.000134846952278167,0.0004537964705377817,0.0007727459887973964,0.0010916955070570111,0.001410644967108965,0.0017295945435762405,0.002048544120043516,0.0023674936965107918,0.0026864430401474237,0.0030053926166146994,0.003324342193081975,0.003643291536718607,0.003962241113185883,0.004281190689653158,0.004600140266120434,0.004919089842587709,0.005238039419054985,0.005556988529860973,0.005875938106328249,0.006194887682795525,0.0065138372592628,0.006832786835730076],"_type":"histogram","values":[1,0,0,0,0,0,0,0,0,1,0,1,0,1,0,0,0,0,0,1,1,1,3,2,1,0,1,4,3,4,2,1,5,5,4,3,4,0,5,4,0,4,7,7,5,6,4,6,2,2,3,3,3,2,3,1,1,3,4,1,1,0,0,2]},"gradients/graph_8features.0.bias":{"_type":"histogram","values":[1,0,0,0,0,0,0,0,1,0,0,0,0,1,0,0,0,1,0,1,0,1,2,1,0,1,5,1,3,2,1,0,0,2,3,3,1,3,0,2,2,4,1,3,5,4,1,1,1,1,1,1,1,0,0,1,0,0,0,0,0,0,0,1],"bins":[-0.020619947463274002,-0.020130181685090065,-0.019640415906906128,-0.01915065012872219,-0.018660884350538254,-0.018171118572354317,-0.01768135279417038,-0.017191587015986443,-0.016701821237802505,-0.01621205359697342,-0.015722287818789482,-0.01523252297192812,-0.014742756262421608,-0.014252990484237671,-0.013763224706053734,-0.013273458927869797,-0.01278369314968586,-0.012293927371501923,-0.011804161593317986,-0.011314395815134048,-0.010824630036950111,-0.0103348633274436,-0.009845097549259663,-0.009355331771075726,-0.008865565992891788,-0.008375800214707851,-0.007886034436523914,-0.00739626819267869,-0.006906502414494753,-0.006416736636310816,-0.005926970392465591,-0.005437204614281654,-0.0049474406987428665,-0.0044576749205589294,-0.003967909142374992,-0.003478142898529768,-0.002988377120345831,-0.002498611342161894,-0.002008845331147313,-0.0015190794365480542,-0.0010293135419487953,-0.0005395476473495364,-4.978175275027752e-05,0.0004399841418489814,0.0009297500364482403,0.0014195159310474992,0.001909281825646758,0.002399047836661339,0.002888813614845276,0.003378579393029213,0.0038683454040437937,0.004358111415058374,0.0048478771932423115,0.0053376429714262486,0.005827409215271473,0.00631717499345541,0.006806940771639347,0.007296706549823284,0.007786472328007221,0.008276238106191158,0.00876600481569767,0.009255770593881607,0.009745536372065544,0.010235302150249481,0.010725067928433418]},"gradients/graph_8classifier.5.bias":{"bins":[-0.02252664975821972,-0.021965136751532555,-0.02140362374484539,-0.020842110738158226,-0.02028059773147106,-0.019719084724783897,-0.019157571718096733,-0.01859605871140957,-0.018034547567367554,-0.01747303456068039,-0.016911521553993225,-0.01635000854730606,-0.015788495540618896,-0.015226982533931732,-0.014665469527244568,-0.014103956520557404,-0.01354244351387024,-0.012980930507183075,-0.01241941750049591,-0.011857904493808746,-0.011296391487121582,-0.010734879411756992,-0.010173366405069828,-0.009611853398382664,-0.0090503403916955,-0.008488827385008335,-0.00792731437832117,-0.007365801837295294,-0.0068042888306081295,-0.006242775823920965,-0.005681263282895088,-0.005119750276207924,-0.00455823540687561,-0.003996722400188446,-0.0034352096263319254,-0.0028736968524754047,-0.0023121838457882404,-0.001750670955516398,-0.0011891580652445555,-0.000627645174972713,-6.613228470087051e-05,0.000495380605570972,0.0010568934958428144,0.001618406386114657,0.0021799192763864994,0.0027414322830736637,0.0033029450569301844,0.003864457830786705,0.004425970837473869,0.004987483844161034,0.005548996850848198,0.006110509391874075,0.006672022398561239,0.0072335354052484035,0.0077950479462742805,0.008356560952961445,0.00891807395964861,0.009479586966335773,0.010041099973022938,0.010602612979710102,0.011164125055074692,0.011725638061761856,0.01228715106844902,0.012848664075136185,0.013410177081823349],"_type":"histogram","values":[1,0,0,0,0,0,0,0,0,0,1,0,0,0,0,0,0,0,0,0,0,0,0,0,0,0,0,0,0,0,0,0,0,0,0,0,0,0,1,0,1,1,0,0,0,0,0,2,1,0,0,0,0,0,0,0,0,0,0,0,0,0,0,2]},"gradients/graph_8features.6.weight":{"bins":[-0.012070078402757645,-0.011683546006679535,-0.011297013610601425,-0.010910481214523315,-0.010523948818445206,-0.010137416422367096,-0.009750884026288986,-0.009364351630210876,-0.008977819234132767,-0.008591285906732082,-0.008204753510653973,-0.007818221114575863,-0.007431688718497753,-0.007045156322419643,-0.006658623926341534,-0.006272091530263424,-0.005885559134185314,-0.0054990267381072044,-0.005112494342029095,-0.004725961945950985,-0.004339429549872875,-0.003952896688133478,-0.0035663642920553684,-0.0031798318959772587,-0.002793299499899149,-0.002406767103821039,-0.0020202347077429295,-0.001633702078834176,-0.0012471696827560663,-0.0008606372284702957,-0.000474104774184525,-8.757231989875436e-05,0.0002989592030644417,0.0006854916573502123,0.001072024111635983,0.0014585566241294146,0.0018450890202075243,0.002231621416285634,0.0026181540451943874,0.003004686441272497,0.003391218837350607,0.0037777512334287167,0.004164283629506826,0.004550816025584936,0.004937348887324333,0.005323881283402443,0.005710413679480553,0.006096946075558662,0.006483478471636772,0.006870010867714882,0.007256543263792992,0.007643075659871101,0.008029608055949211,0.00841614045202732,0.00880267284810543,0.00918920524418354,0.00957573764026165,0.009962270967662334,0.010348803363740444,0.010735335759818554,0.011121868155896664,0.011508400551974773,0.011894932948052883,0.012281465344130993,0.012667997740209103],"_type":"histogram","values":[3,1,4,7,11,17,26,39,36,58,60,79,131,166,251,347,395,564,739,974,1313,1764,2231,2965,3983,5338,7068,9804,13816,20257,36586,98928,25445,16912,12097,8866,6436,4879,3423,2448,1804,1328,960,661,439,343,245,186,147,96,59,44,34,25,13,13,13,18,4,9,1,0,0,3]},"train_loss":0.09991985559463501,"gradients/graph_8features.8.bias":{"bins":[-0.007710438221693039,-0.007495140191167593,-0.00727984169498086,-0.007064543664455414,-0.006849245633929968,-0.006633947137743235,-0.006418649107217789,-0.006203351076692343,-0.005988053046166897,-0.005772754549980164,-0.005557456519454718,-0.005342158488929272,-0.0051268599927425385,-0.0049115619622170925,-0.004696263931691647,-0.004480965435504913,-0.004265667404979467,-0.0040503693744540215,-0.003835071111097932,-0.0036197728477418423,-0.0034044748172163963,-0.0031891765538603067,-0.002973878290504217,-0.002758580259978771,-0.0025432819966226816,-0.002327983733266592,-0.002112685702741146,-0.0018973874393850565,-0.0016820892924442887,-0.001466791145503521,-0.0012514928821474314,-0.0010361947352066636,-0.0008208965882658958,-0.0006055984413251281,-0.0003903002361766994,-0.00017500206013210118,4.0296115912497044e-05,0.00025559429195709527,0.0004708924680016935,0.0006861906731501222,0.0009014888200908899,0.0011167869670316577,0.0013320851139724255,0.001547383377328515,0.0017626815242692828,0.0019779796712100506,0.00219327793456614,0.002408575965091586,0.0026238742284476757,0.0028391724918037653,0.0030544705223292112,0.003269768785685301,0.0034850668162107468,0.0037003650795668364,0.003915663342922926,0.004130961373448372,0.004346259869635105,0.004561557900160551,0.004776855930685997,0.004992153961211443,0.005207452457398176,0.005422750487923622,0.005638048518449068,0.005853347014635801,0.006068645045161247],"_type":"histogram","values":[1,0,0,0,0,1,1,1,0,1,1,1,1,3,1,3,0,0,3,0,0,4,4,5,6,8,8,6,10,9,10,11,9,18,11,19,9,8,15,5,4,3,10,7,7,4,7,7,1,2,1,0,1,0,3,1,0,0,3,0,1,0,0,1]}}