{"gradients/graph_19features.8.bias":{"bins":[-0.0009254863834939897,-0.0008980240672826767,-0.0008705616928637028,-0.0008430993766523898,-0.0008156370604410768,-0.0007881746860221028,-0.0007607123698107898,-0.0007332499953918159,-0.0007057876791805029,-0.0006783253629691899,-0.000650862988550216,-0.000623400672338903,-0.000595938297919929,-0.000568475981708616,-0.000541013665497303,-0.0005135512910783291,-0.0004860889748670161,-0.0004586266295518726,-0.00043116428423672915,-0.00040370196802541614,-0.00037623962271027267,-0.0003487772773951292,-0.0003213149611838162,-0.00029385261586867273,-0.00026639027055352926,-0.0002389279252383858,-0.00021146559447515756,-0.00018400326371192932,-0.00015654091839678586,-0.0001290785730816424,-0.00010161624231841415,-7.41539042792283e-05,-4.669156624004245e-05,-1.9229228200856596e-05,8.233109838329256e-06,3.569544787751511e-05,6.315778591670096e-05,9.062012395588681e-05,0.00011808246199507266,0.0001455447927583009,0.00017300713807344437,0.00020046948338858783,0.00022793181415181607,0.0002553941449150443,0.0002828564902301878,0.00031031883554533124,0.00033778115175664425,0.0003652434970717877,0.0003927058423869312,0.00042016818770207465,0.0004476305330172181,0.0004750928492285311,0.0005025551654398441,0.000530017539858818,0.0005574798560701311,0.000584942230489105,0.000612404546700418,0.000639866862911731,0.0006673292373307049,0.0006947915535420179,0.0007222539279609919,0.0007497162441723049,0.0007771785603836179,0.0008046409348025918,0.0008321032510139048],"_type":"histogram","values":[1,1,0,0,0,0,1,1,1,0,1,0,1,2,3,3,3,0,2,2,1,8,9,5,6,8,8,12,10,7,9,11,9,11,9,17,7,11,8,7,3,7,11,4,3,10,1,1,3,5,2,1,1,0,3,1,1,0,1,0,1,0,0,2]},"gradients/graph_19classifier.0.weight":{"bins":[-0.005433423910290003,-0.0053015537559986115,-0.005169683136045933,-0.005037812981754541,-0.00490594282746315,-0.004774072207510471,-0.00464220205321908,-0.004510331433266401,-0.00437846127897501,-0.0042465911246836185,-0.00411472050473094,-0.0039828503504395485,-0.0038509799633175135,-0.0037191095761954784,-0.003587239421904087,-0.003455369034782052,-0.003323498647660017,-0.003191628260537982,-0.003059757873415947,-0.0029278877191245556,-0.0027960173320025206,-0.0026641469448804855,-0.002532276790589094,-0.002400406403467059,-0.002268536016345024,-0.002136665629222989,-0.002004795242100954,-0.0018729250878095627,-0.0017410547006875277,-0.0016091843135654926,-0.0014773140428587794,-0.0013454437721520662,-0.0012135731521993876,-0.0010817027650773525,-0.0009498324943706393,-0.0008179621654562652,-0.0006860918365418911,-0.000554221507627517,-0.00042235117871314287,-0.00029048084979876876,-0.00015861052088439465,-2.6740191970020533e-05,0.00010513013694435358,0.0002370004658587277,0.0003688707947731018,0.0005007411236874759,0.00063261145260185,0.0007644817815162241,0.0008963521104305983,0.0010282224975526333,0.0011600927682593465,0.0012919630389660597,0.0014238334260880947,0.0015557038132101297,0.001687574083916843,0.0018194443546235561,0.0019513147417455912,0.002083185128867626,0.0022150552831590176,0.0023469256702810526,0.0024787960574030876,0.0026106664445251226,0.0027425368316471577,0.002874406985938549,0.003006277373060584],"_type":"histogram","values":[1,0,0,2,0,0,0,1,0,2,0,1,2,1,3,3,5,3,3,11,10,18,14,22,27,51,60,96,131,223,309,483,779,1274,2133,3816,7151,14651,34454,101726,624959,8.418857e+06,152992,41846,16076,7085,3443,1937,1016,595,342,225,133,79,54,29,15,14,7,5,3,3,2,1]},"gradients/graph_19features.3.weight":{"values":[1,1,3,1,3,4,4,1,4,12,13,21,30,41,55,78,77,125,156,202,240,319,424,523,723,976,1214,1707,2309,3030,4312,6206,8693,14454,8627,5451,3949,2658,1862,1276,966,737,561,434,325,241,161,139,92,71,56,42,31,21,16,15,11,7,3,6,2,3,2,1],"bins":[-0.001526174251921475,-0.0014809542335569859,-0.0014357343316078186,-0.0013905144296586514,-0.0013452944112941623,-0.0013000743929296732,-0.001254854490980506,-0.0012096345890313387,-0.0011644145706668496,-0.0011191945523023605,-0.0010739746503531933,-0.001028754748404026,-0.000983534730039537,-0.0009383147698827088,-0.0008930948097258806,-0.0008478748495690525,-0.0008026548894122243,-0.0007574349292553961,-0.000712214969098568,-0.0006669950089417398,-0.0006217750487849116,-0.0005765550886280835,-0.0005313351284712553,-0.00048611516831442714,-0.00044089520815759897,-0.0003956752480007708,-0.00035045528784394264,-0.0003052353276871145,-0.0002600153675302863,-0.00021479540737345815,-0.00016957544721662998,-0.00012435548705980182,-7.913541048765182e-05,-3.391545033082366e-05,1.1304509826004505e-05,5.652446998283267e-05,0.00010174443013966084,0.000146964390296489,0.00019218435045331717,0.00023740431061014533,0.0002826242707669735,0.00032784423092380166,0.0003730641910806298,0.000418284151237458,0.00046350411139428616,0.0005087240715511143,0.0005539440317079425,0.0005991639918647707,0.0006443839520215988,0.000689603912178427,0.0007348238723352551,0.0007800438324920833,0.0008252637926489115,0.0008704837528057396,0.0009157037129625678,0.000960923673119396,0.0010061436332762241,0.0010513635352253914,0.0010965835535898805,0.0011418035719543695,0.0011870234739035368,0.001232243375852704,0.0012774633942171931,0.0013226834125816822,0.0013679033145308495],"_type":"histogram"},"gradients/graph_19features.3.bias":{"bins":[-0.0007757389103062451,-0.0007579207303933799,-0.0007401025504805148,-0.0007222844287753105,-0.0007044662488624454,-0.0006866480689495802,-0.000668829889036715,-0.0006510117091238499,-0.0006331935292109847,-0.0006153754075057805,-0.0005975572275929153,-0.0005797390476800501,-0.000561920867767185,-0.0005441026878543198,-0.0005262845661491156,-0.0005084663862362504,-0.0004906482063233852,-0.0004728300264105201,-0.00045501187560148537,-0.0004371936956886202,-0.0004193755448795855,-0.00040155736496672034,-0.0003837391850538552,-0.0003659210342448205,-0.0003481028543319553,-0.00033028467441909015,-0.00031246652361005545,-0.0002946483436971903,-0.0002768301637843251,-0.0002590120129752904,-0.00024119383306242526,-0.00022337566770147532,-0.00020555753144435585,-0.0001877393660834059,-0.00016992120072245598,-0.00015210302080959082,-0.00013428485544864088,-0.00011646669008769095,-9.86485174507834e-05,-8.083034481387585e-05,-6.301217945292592e-05,-4.519401045399718e-05,-2.737584145506844e-05,-9.557672456139699e-06,8.260496542789042e-06,2.6078665541717783e-05,4.389683454064652e-05,6.171500717755407e-05,7.9533172538504e-05,9.735133789945394e-05,0.00011516951053636149,0.00013298768317326903,0.00015080584853421897,0.0001686240138951689,0.00018644219380803406,0.000204260359168984,0.00022207852452993393,0.00023989668989088386,0.0002577148552518338,0.00027553303516469896,0.00029335118597373366,0.0003111693658865988,0.000328987545799464,0.0003468056966084987,0.00036462387652136385],"_type":"histogram","values":[1,0,0,0,0,0,0,1,2,1,0,1,0,2,0,2,0,1,2,0,5,0,1,1,1,2,3,4,2,3,3,2,4,3,3,1,6,1,1,5,1,3,4,4,9,5,2,2,4,4,0,4,4,2,2,0,2,2,1,1,3,0,1,4]},"gradients/graph_19classifier.5.weight":{"values":[2,1,0,1,1,4,1,3,1,1,5,5,10,11,19,21,29,23,30,44,47,51,63,103,127,161,166,207,240,363,767,2124,6440,23724,3073,1109,475,275,236,169,160,131,103,93,77,64,46,23,30,16,20,16,6,11,6,8,5,2,3,3,3,1,0,1],"bins":[-0.006445123348385096,-0.0062509141862392426,-0.0060567050240933895,-0.0058624958619475365,-0.005668286699801683,-0.00547407753765583,-0.005279868375509977,-0.005085659213364124,-0.004891449585556984,-0.004697240423411131,-0.004503031261265278,-0.004308822099119425,-0.004114612936973572,-0.003920403774827719,-0.0037261946126818657,-0.0035319854505360126,-0.0033377762883901596,-0.0031435671262443066,-0.0029493579640984535,-0.0027551488019526005,-0.0025609396398067474,-0.0023667302448302507,-0.0021725210826843977,-0.0019783119205385447,-0.0017841027583926916,-0.0015898935962468386,-0.0013956844341009855,-0.0012014751555398107,-0.0010072659933939576,-0.0008130568312481046,-0.0006188476108945906,-0.0004246384196449071,-0.0002304287627339363,-3.621957148425281e-05,0.0001579896197654307,0.0003521988110151142,0.0005464080022647977,0.0007406171644106507,0.0009348263847641647,0.0011290356051176786,0.0013232447672635317,0.0015174539294093847,0.0017116630915552378,0.0019058723701164126,0.0021000816486775875,0.0022942908108234406,0.0024884999729692936,0.0026827091351151466,0.0028769182972609997,0.0030711274594068527,0.0032653366215527058,0.003459545783698559,0.003653754945844412,0.0038479643408209085,0.004042173270136118,0.004236382432281971,0.004430592060089111,0.004624801222234964,0.004819010384380817,0.0050132195465266705,0.0052074287086725235,0.0054016378708183765,0.00559584703296423,0.005790056195110083,0.005984265357255936],"_type":"histogram"},"gradients/graph_19features.0.weight":{"values":[1,0,0,1,0,2,0,0,1,1,2,1,0,2,4,2,1,5,4,7,5,3,8,8,8,11,14,10,24,22,18,17,27,25,22,32,26,20,21,23,35,21,30,18,19,19,9,8,11,5,4,3,2,1,3,1,0,3,2,1,0,0,2,1],"bins":[-0.0025869261007755995,-0.0025107539258897305,-0.002434581983834505,-0.002358409808948636,-0.002282237634062767,-0.002206065459176898,-0.002129893284291029,-0.0020537213422358036,-0.0019775491673499346,-0.0019013769924640656,-0.0018252049339935184,-0.0017490328755229712,-0.0016728607006371021,-0.001596688525751233,-0.001520516467280686,-0.0014443444088101387,-0.0013681722339242697,-0.0012920000590384007,-0.0012158280005678535,-0.0011396559420973063,-0.0010634837672114372,-0.0009873115923255682,-0.000911139533855021,-0.0008349674171768129,-0.0007587953004986048,-0.0006826231838203967,-0.0006064510671421885,-0.0005302789504639804,-0.0004541068337857723,-0.0003779347171075642,-0.0003017626004293561,-0.00022559048375114799,-0.00014941859990358353,-7.324648322537541e-05,2.925633452832699e-06,7.909775013104081e-05,0.00015526986680924892,0.00023144198348745704,0.00030761410016566515,0.00038378621684387326,0.0004599583335220814,0.0005361304502002895,0.0006123025668784976,0.0006884746835567057,0.0007646468002349138,0.0008408189169131219,0.00091699103359133,0.0009931630920618773,0.0010693352669477463,0.0011455074418336153,0.0012216795003041625,0.0012978515587747097,0.0013740237336605787,0.0014501959085464478,0.001526367967016995,0.0016025400254875422,0.0016787122003734112,0.0017548843752592802,0.0018310564337298274,0.0019072284922003746,0.0019834006670862436,0.0020595728419721127,0.002135744784027338,0.002211916958913207,0.002288089133799076],"_type":"histogram"},"gradients/graph_19classifier.3.weight":{"_type":"histogram","values":[1,0,0,0,0,1,0,3,1,4,3,7,18,17,29,39,48,96,149,247,425,733,1189,2002,3437,6047,10822,20468,38974,78855,171985,468797,1.4291796e+07,1.178696e+06,268243,112906,54878,28490,15932,8874,5154,3009,1918,1115,674,407,259,168,94,71,39,39,19,11,8,5,4,4,2,1,0,0,1,2],"bins":[-0.0016982705565169454,-0.0016464286018162966,-0.001594586530700326,-0.0015427445759996772,-0.0014909026212990284,-0.0014390605501830578,-0.001387218595482409,-0.0013353766407817602,-0.0012835345696657896,-0.0012316926149651408,-0.001179850660264492,-0.0011280085891485214,-0.0010761666344478726,-0.0010243246797472239,-0.0009724826086312532,-0.0009206406539306045,-0.0008687986410222948,-0.0008169566281139851,-0.0007651146734133363,-0.0007132726605050266,-0.0006614306475967169,-0.0006095886928960681,-0.0005577466799877584,-0.0005059046670794487,-0.00045406268327496946,-0.0004022206994704902,-0.0003503786865621805,-0.0002985367027577013,-0.00024669471895322204,-0.00019485270604491234,-0.0001430107222404331,-9.116872388403863e-05,-3.932672552764416e-05,1.2515269190771505e-05,6.435726390918717e-05,0.00011619925498962402,0.0001680412533460185,0.00021988325170241296,0.0002717252355068922,0.0003235672484152019,0.00037540923221968114,0.0004272512160241604,0.0004790932289324701,0.0005309352418407798,0.0005827771965414286,0.0006346192094497383,0.000686461222358048,0.0007383031770586967,0.0007901451899670064,0.0008419872028753161,0.0008938291575759649,0.0009456711704842746,0.0009975131833925843,0.0010493551380932331,0.0011011972092092037,0.0011530391639098525,0.0012048811186105013,0.001256723189726472,0.0013085651444271207,0.0013604070991277695,0.00141224917024374,0.0014640911249443889,0.0015159330796450377,0.0015677751507610083,0.001619617105461657]},"_step":9,"_runtime":57.83080857,"val_loss":0.025491740525560008,"gradients/graph_19features.6.bias":{"values":[1,0,1,3,0,0,0,1,1,3,0,1,1,2,2,6,8,4,4,4,3,8,8,6,8,8,16,11,9,16,13,8,15,7,12,7,12,5,5,5,4,3,5,5,2,1,4,0,4,1,0,0,1,0,1,0,0,0,0,0,0,0,0,1],"bins":[-0.000532427104189992,-0.0005153779056854546,-0.0004983287071809173,-0.0004812795377802104,-0.00046423033927567303,-0.0004471811407711357,-0.00043013194226659834,-0.000413082743762061,-0.0003960335743613541,-0.00037898437585681677,-0.0003619351773522794,-0.0003448859788477421,-0.00032783678034320474,-0.0003107875818386674,-0.0002937384124379605,-0.00027668921393342316,-0.0002596400154288858,-0.00024259081692434847,-0.00022554163297172636,-0.00020849243446718901,-0.0001914432505145669,-0.00017439405201002955,-0.0001573448535054922,-0.0001402956695528701,-0.00012324647104833275,-0.00010619727981975302,-8.914808859117329e-05,-7.209889008663595e-05,-5.504969885805622e-05,-3.800050762947649e-05,-2.095131276291795e-05,-3.902119715348817e-06,1.3147073332220316e-05,3.019626637978945e-05,4.724545942735858e-05,6.429465429391712e-05,8.134384552249685e-05,9.839303675107658e-05,0.00011544223525561392,0.00013249141920823604,0.00014954061771277338,0.00016658981621731073,0.00018363900016993284,0.00020068819867447019,0.00021773739717900753,0.00023478658113162965,0.00025183576508425176,0.0002688849635887891,0.00028593416209332645,0.0003029833605978638,0.00032003255910240114,0.000337081728503108,0.00035413092700764537,0.0003711801255121827,0.00038822932401672006,0.0004052785225212574,0.00042232772102579474,0.00043937689042650163,0.000456426088931039,0.0004734752874355763,0.0004905244568362832,0.0005075736553408206,0.0005246228538453579,0.0005416720523498952,0.0005587212508544326],"_type":"histogram"},"_wandb":{"runtime":57},"gradients/graph_19features.0.bias":{"_type":"histogram","values":[1,0,0,0,0,0,0,0,0,1,0,0,1,0,0,0,1,1,0,2,0,1,1,4,3,2,1,2,2,2,1,3,2,1,4,1,4,3,1,1,3,1,0,0,1,2,3,1,0,0,1,1,1,0,0,0,1,1,1,0,0,0,0,1],"bins":[-0.002291155280545354,-0.00223248777911067,-0.0021738200448453426,-0.002115152310580015,-0.0020564848091453314,-0.0019978173077106476,-0.0019391495734453201,-0.0018804819555953145,-0.0018218143377453089,-0.0017631467198953032,-0.0017044791020452976,-0.001645811484195292,-0.0015871438663452864,-0.0015284762484952807,-0.0014698086306452751,-0.0014111410127952695,-0.0013524733949452639,-0.0012938057770952582,-0.0012351381592452526,-0.001176470541395247,-0.0011178029235452414,-0.0010591353056952357,-0.00100046768784523,-0.0009418000699952245,-0.0008831324521452188,-0.0008244648342952132,-0.0007657972164452076,-0.000707129598595202,-0.0006484619807451963,-0.0005897943628951907,-0.0005311267450451851,-0.00047245912719517946,-0.00041379150934517384,-0.0003551238914951682,-0.0002964562736451626,-0.00023778865579515696,-0.00017912103794515133,-0.0001204534200951457,-6.178580224514008e-05,-3.118184395134449e-06,5.554943345487118e-05,0.0001142170513048768,0.00017288466915488243,0.00023155228700488806,0.0002902199048548937,0.0003488875227048993,0.00040755514055490494,0.00046622275840491056,0.0005248903762549162,0.0005835579941049218,0.0006422256119549274,0.0007008932298049331,0.0007595608476549387,0.0008182284655049443,0.00087689608335495,0.0009355637012049556,0.0009942313190549612,0.0010528989369049668,0.0011115665547549725,0.001170234172604978,0.0012289017904549837,0.0012875694083049893,0.001346237026154995,0.0014049046440050006,0.0014635722618550062]},"val_accuracy":0.9912420382165605,"gradients/graph_19classifier.5.bias":{"_type":"histogram","values":[1,0,0,0,0,0,0,0,0,0,0,0,0,0,0,0,0,0,0,0,0,0,0,0,0,0,0,0,0,0,0,0,0,0,0,0,0,0,0,0,1,1,2,0,1,0,2,0,0,1,0,0,0,0,0,0,0,0,0,0,0,0,0,1],"bins":[-0.0043822284787893295,-0.004277170170098543,-0.004172111861407757,-0.0040670535527169704,-0.003961995244026184,-0.003856936702504754,-0.003751878160983324,-0.0036468198522925377,-0.0035417615436017513,-0.003436703234910965,-0.0033316449262201786,-0.0032265863846987486,-0.0031215280760079622,-0.003016469767317176,-0.002911411225795746,-0.0028063529171049595,-0.002701294608414173,-0.0025962362997233868,-0.0024911779910326004,-0.0023861194495111704,-0.002281061140820384,-0.0021760028321295977,-0.0020709442906081676,-0.0019658859819173813,-0.001860827673226595,-0.0017557693645358086,-0.0016507109394297004,-0.0015456525143235922,-0.0014405942056328058,-0.0013355358969420195,-0.0012304774718359113,-0.001125419046729803,-0.0010203609708696604,-0.0009153026039712131,-0.0008102442370727658,-0.0007051858701743186,-0.0006001275032758713,-0.000495069136377424,-0.0003900107694789767,-0.00028495240258052945,-0.00017989403568208218,-7.48356687836349e-05,3.0222698114812374e-05,0.00013528106501325965,0.00024033943191170692,0.0003453977988101542,0.0004504561657086015,0.0005555145326070487,0.000660572899505496,0.0007656312664039433,0.0008706896333023906,0.0009757480002008379,0.0010808063670992851,0.0011858646757900715,0.0012909231008961797,0.0013959815260022879,0.0015010398346930742,0.0016060981433838606,0.0017111565684899688,0.001816214993596077,0.0019212733022868633,0.0020263316109776497,0.002131389919668436,0.002236448461189866,0.0023415067698806524]},"gradients/graph_19features.8.weight":{"values":[1,0,0,0,1,0,1,0,0,1,7,4,6,7,13,11,28,43,65,95,127,182,285,433,641,880,1225,1826,2693,4124,6262,10060,16134,27251,50057,107271,213282,65289,34409,18832,10836,6614,4051,2442,1599,1029,606,420,263,141,91,80,40,19,15,8,7,7,3,0,3,1,0,3],"bins":[-0.0030298358760774136,-0.0029461754020303488,-0.002862514927983284,-0.002778854453936219,-0.0026951939798891544,-0.0026115335058420897,-0.002527873031795025,-0.00244421255774796,-0.0023605520837008953,-0.0022768916096538305,-0.0021932311356067657,-0.002109570661559701,-0.002025910187512636,-0.0019422498298808932,-0.0018585893558338284,-0.0017749288817867637,-0.0016912684077396989,-0.001607607933692634,-0.0015239474596455693,-0.0014402869855985045,-0.0013566265115514398,-0.001272966037504375,-0.0011893055634573102,-0.0011056450894102454,-0.0010219847317785025,-0.0009383241995237768,-0.000854663725476712,-0.0007710032514296472,-0.0006873428355902433,-0.0006036823615431786,-0.0005200218874961138,-0.000436361413449049,-0.0003527009394019842,-0.00026904046535491943,-0.00018538000585976988,-0.00010171953908866271,-1.8059072317555547e-05,6.560139445355162e-05,0.0001492618612246588,0.00023292232071980834,0.0003165827947668731,0.0004002432688139379,0.0004839037428610027,0.0005675642169080675,0.0006512246327474713,0.0007348851067945361,0.0008185455808416009,0.0009022060548886657,0.0009858665289357305,0.0010695270029827952,0.00115318747702986,0.0012368479510769248,0.0013205084251239896,0.0014041688991710544,0.0014878293732181191,0.001571489847265184,0.0016551502048969269,0.0017388106789439917,0.0018224711529910564,0.0019061316270381212,0.001989792101085186,0.002073452575132251,0.0021571130491793156,0.0022407735232263803,0.002324433997273445],"_type":"histogram"},"gradients/graph_19classifier.0.bias":{"values":[1,0,0,0,0,0,0,0,0,0,0,0,0,1,0,0,0,0,0,1,3,2,0,4,2,5,5,9,9,21,12,32,27,28,42,41,90,95,99,125,342,2162,339,152,98,72,73,44,39,29,27,18,9,7,6,6,6,5,3,2,0,0,1,2],"bins":[-0.001295055728405714,-0.0012638900661841035,-0.001232724403962493,-0.0012015587417408824,-0.0011703930795192719,-0.0011392274172976613,-0.0011080617550760508,-0.0010768960928544402,-0.0010457304306328297,-0.0010145647684112191,-0.0009833991061896086,-0.000952233443967998,-0.0009210677817463875,-0.0008899021195247769,-0.0008587364573031664,-0.0008275707950815558,-0.0007964051328599453,-0.0007652394706383348,-0.0007340738084167242,-0.0007029081461951137,-0.0006717424839735031,-0.0006405768217518926,-0.000609411159530282,-0.0005782454973086715,-0.0005470798350870609,-0.0005159141728654504,-0.00048474851064383984,-0.0004535828484222293,-0.00042241718620061874,-0.0003912515239790082,-0.00036008586175739765,-0.0003289201995357871,-0.0002977545955218375,-0.0002665889333002269,-0.00023542327107861638,-0.00020425760885700583,-0.0001730919466353953,-0.00014192628441378474,-0.0001107606221921742,-7.959495997056365e-05,-4.8429297748953104e-05,-1.7263635527342558e-05,1.3902026694267988e-05,4.5067688915878534e-05,7.623335113748908e-05,0.00010739901335909963,0.00013856467558071017,0.00016973033780232072,0.00020089600002393126,0.0002320616622455418,0.00026322732446715236,0.0002943929866887629,0.00032555864891037345,0.000356724311131984,0.00038788997335359454,0.0004190556355752051,0.00045022129779681563,0.0004813869600184262,0.0005125526222400367,0.0005437182844616473,0.0005748839466832578,0.0006060496089048684,0.0006372152711264789,0.0006683809333480895,0.0006995465955697],"_type":"histogram"},"_timestamp":1.7387236038016758e+09,"gradients/graph_19classifier.3.bias":{"bins":[-0.0005647505167871714,-0.0005472250049933791,-0.0005296994931995869,-0.0005121739814057946,-0.0004946484696120024,-0.0004771229869220406,-0.00045959747512824833,-0.0004420719633344561,-0.0004245464806444943,-0.00040702096885070205,-0.0003894954570569098,-0.00037196994526311755,-0.0003544444334693253,-0.00033691892167553306,-0.00031939343898557127,-0.000301867927191779,-0.00028434241539798677,-0.0002668169036041945,-0.0002492913918104023,-0.00023176589456852525,-0.00021424039732664824,-0.000196714885532856,-0.00017918937373906374,-0.00016166387649718672,-0.00014413836470339447,-0.00012661285290960222,-0.0001090873556677252,-9.156184387393296e-05,-7.403633935609832e-05,-5.651083483826369e-05,-3.898532668245025e-05,-2.1459820345626213e-05,-3.9343140088021755e-06,1.3591192328021862e-05,3.11166986648459e-05,4.864220682065934e-05,6.616771133849397e-05,8.36932158563286e-05,0.00010121872765012085,0.00011874423216795549,0.00013626973668579012,0.00015379524847958237,0.0001713207457214594,0.00018884625751525164,0.00020637176930904388,0.0002238972665509209,0.00024142277834471315,0.00025894827558659017,0.0002764737873803824,0.00029399929917417467,0.0003115248109679669,0.0003290502936579287,0.00034657580545172095,0.0003641013172455132,0.00038162682903930545,0.0003991523408330977,0.00041667785262688994,0.00043420333531685174,0.000451728847110644,0.00046925435890443623,0.0004867798706982285,0.0005043053533881903,0.0005218308651819825,0.0005393563769757748,0.000556881888769567],"_type":"histogram","values":[1,0,0,0,0,0,1,3,0,5,2,6,8,8,13,14,13,9,23,28,35,44,59,64,91,121,135,137,155,184,241,475,638,298,216,188,161,119,116,103,73,71,56,36,24,28,18,8,18,9,15,6,5,6,1,0,2,0,2,0,1,0,2,1]},"epoch":4,"val_f1_score":0.9904325030906249,"train_loss":0.0010507011320441961,"gradients/graph_19features.6.weight":{"values":[1,1,0,5,6,6,3,16,10,27,36,53,67,114,134,193,241,332,426,621,775,1064,1386,1916,2488,3422,4667,6426,8796,12366,17321,24664,35385,72084,32910,20922,13990,9301,6671,4736,3349,2263,1614,1198,822,598,418,305,217,160,115,84,46,35,33,23,17,13,8,7,2,2,0,1],"bins":[-0.0014485730789601803,-0.001405439106747508,-0.0013623052509501576,-0.0013191712787374854,-0.0012760373065248132,-0.0012329034507274628,-0.0011897694785147905,-0.0011466355063021183,-0.001103501534089446,-0.0010603676782920957,-0.0010172337060794234,-0.0009740997920744121,-0.0009309658780694008,-0.0008878319058567286,-0.0008446979918517172,-0.000801564019639045,-0.0007584301056340337,-0.0007152961916290224,-0.0006721622194163501,-0.0006290283054113388,-0.0005858943331986666,-0.0005427604191936553,-0.0004996265051886439,-0.00045649256207980216,-0.0004133586189709604,-0.0003702246758621186,-0.0003270907327532768,-0.0002839568187482655,-0.00024082287563942373,-0.00019768893253058195,-0.0001545550039736554,-0.00011142106814077124,-6.828701589256525e-05,-2.5153080059681088e-05,1.7980855773203075e-05,6.111479160608724e-05,0.0001042487274389714,0.00014738267054781318,0.00019051659910473973,0.00023365052766166627,0.00027678447077050805,0.00031991841387934983,0.0003630523569881916,0.0004061862709932029,0.0004493202141020447,0.0004924541572108865,0.0005355880712158978,0.00057872204342857,0.0006218559574335814,0.0006649898714385927,0.0007081238436512649,0.0007512577576562762,0.0007943917298689485,0.0008375256438739598,0.0008806595578789711,0.0009237935300916433,0.0009669274440966547,0.001010061358101666,0.0010531953303143382,0.0010963293025270104,0.0011394631583243608,0.001182597130537033,0.0012257311027497053,0.0012688649585470557,0.001311998930759728],"_type":"histogram"}}